digraph Tree {
node [shape=box, style="filled", color="black", fontname="helvetica"] ;
edge [fontname="helvetica"] ;
0 [label="DEBTINC <= 45.155\ngini = 0.167\nsamples = 2623\nvalue = [2382, 241]\nclass = Good", fillcolor="#e88e4d"] ;
1 [label="DELINQ <= 4.5\ngini = 0.138\nsamples = 2571\nvalue = [2380, 191]\nclass = Good", fillcolor="#e78b49"] ;
0 -> 1 [labeldistance=2.5, labelangle=45, headlabel="True"] ;
2 [label="CLNO <= 2.5\ngini = 0.129\nsamples = 2558\nvalue = [2380, 178]\nclass = Good", fillcolor="#e78a48"] ;
1 -> 2 ;
3 [label="gini = 0.48\nsamples = 20\nvalue = [8, 12]\nclass = Bad", fillcolor="#bddef6"] ;
2 -> 3 ;
4 [label="DEROG <= 2.5\ngini = 0.122\nsamples = 2538\nvalue = [2372, 166]\nclass = Good", fillcolor="#e78a47"] ;
2 -> 4 ;
5 [label="DELINQ <= 0.135\ngini = 0.116\nsamples = 2517\nvalue = [2362, 155]\nclass = Good", fillcolor="#e78946"] ;
4 -> 5 ;
6 [label="VALUE <= 48837.0\ngini = 0.089\nsamples = 2110\nvalue = [2011, 99]\nclass = Good", fillcolor="#e68743"] ;
5 -> 6 ;
7 [label="LOAN <= 5450.0\ngini = 0.301\nsamples = 114\nvalue = [93, 21]\nclass = Good", fillcolor="#eb9d66"] ;
6 -> 7 ;
8 [label="gini = 0.346\nsamples = 9\nvalue = [2, 7]\nclass = Bad", fillcolor="#72b9ec"] ;
7 -> 8 ;
9 [label="gini = 0.231\nsamples = 105\nvalue = [91, 14]\nclass = Good", fillcolor="#e99457"] ;
7 -> 9 ;
10 [label="CLAGE <= 108.506\ngini = 0.075\nsamples = 1996\nvalue = [1918, 78]\nclass = Good", fillcolor="#e68641"] ;
6 -> 10 ;
11 [label="gini = 0.199\nsamples = 357\nvalue = [317, 40]\nclass = Good", fillcolor="#e89152"] ;
10 -> 11 ;
12 [label="gini = 0.045\nsamples = 1639\nvalue = [1601, 38]\nclass = Good", fillcolor="#e6843e"] ;
10 -> 12 ;
13 [label="CLAGE <= 81.946\ngini = 0.237\nsamples = 407\nvalue = [351, 56]\nclass = Good", fillcolor="#e99559"] ;
5 -> 13 ;
14 [label="gini = 0.499\nsamples = 19\nvalue = [9, 10]\nclass = Bad", fillcolor="#ebf5fc"] ;
13 -> 14 ;
15 [label="DEBTINC <= 10.81\ngini = 0.209\nsamples = 388\nvalue = [342, 46]\nclass = Good", fillcolor="#e89254"] ;
13 -> 15 ;
16 [label="gini = 0.0\nsamples = 3\nvalue = [0, 3]\nclass = Bad", fillcolor="#399de5"] ;
15 -> 16 ;
17 [label="gini = 0.198\nsamples = 385\nvalue = [342, 43]\nclass = Good", fillcolor="#e89152"] ;
15 -> 17 ;
18 [label="gini = 0.499\nsamples = 21\nvalue = [10, 11]\nclass = Bad", fillcolor="#edf6fd"] ;
4 -> 18 ;
19 [label="gini = 0.0\nsamples = 13\nvalue = [0, 13]\nclass = Bad", fillcolor="#399de5"] ;
1 -> 19 ;
20 [label="CLAGE <= 238.576\ngini = 0.074\nsamples = 52\nvalue = [2, 50]\nclass = Bad", fillcolor="#41a1e6"] ;
0 -> 20 [labeldistance=2.5, labelangle=-45, headlabel="False"] ;
21 [label="gini = 0.0\nsamples = 46\nvalue = [0, 46]\nclass = Bad", fillcolor="#399de5"] ;
20 -> 21 ;
22 [label="gini = 0.444\nsamples = 6\nvalue = [2, 4]\nclass = Bad", fillcolor="#9ccef2"] ;
20 -> 22 ;
}