digraph Tree {
node [shape=box, style="filled", color="black", fontname="helvetica"] ;
edge [fontname="helvetica"] ;
0 [label="HANDSET_ASAD90 <= 0.5\nentropy = 0.739\nsamples = 651\nvalue = [515, 136]\nclass = Good", fillcolor="#eca26d"] ;
1 [label="DROPPED_CALLS <= 11.5\nentropy = 0.641\nsamples = 608\nvalue = [509, 99]\nclass = Good", fillcolor="#ea9a60"] ;
0 -> 1 [labeldistance=2.5, labelangle=45, headlabel="True"] ;
2 [label="HANDSET_CAS30 <= 0.5\nentropy = 0.57\nsamples = 586\nvalue = [507, 79]\nclass = Good", fillcolor="#e99558"] ;
1 -> 2 ;
3 [label="PEAK_CALLS_TIME <= 94.2\nentropy = 0.495\nsamples = 562\nvalue = [501, 61]\nclass = Good", fillcolor="#e89051"] ;
2 -> 3 ;
4 [label="entropy = 0.999\nsamples = 46\nvalue = [24, 22]\nclass = Good", fillcolor="#fdf5ef"] ;
3 -> 4 ;
5 [label="entropy = 0.386\nsamples = 516\nvalue = [477, 39]\nclass = Good", fillcolor="#e78b49"] ;
3 -> 5 ;
6 [label="entropy = 0.811\nsamples = 24\nvalue = [6, 18]\nclass = Bad", fillcolor="#7bbeee"] ;
2 -> 6 ;
7 [label="entropy = 0.439\nsamples = 22\nvalue = [2, 20]\nclass = Bad", fillcolor="#4da7e8"] ;
1 -> 7 ;
8 [label="entropy = 0.583\nsamples = 43\nvalue = [6, 37]\nclass = Bad", fillcolor="#59ade9"] ;
0 -> 8 [labeldistance=2.5, labelangle=-45, headlabel="False"] ;
}